or -0.1284045 0.3195363 -0.2555193 0.1861089 -0.9627374 0.8992764 -0.1925228 0.4529513 0.9642885 0.8805168 -0.1210853 -0.6147638 0.3181929 -0.8305761 -0.0335042 -0.519183 0.6774868 -0.774718 0.2962889 -0.4919777 -0.7716413 -0.1737812 -0.2418467 -0.2516807 0.114042 0.3957138 0.5440428 0.4525167 0.5827246 -0.5820604
even -0.4041364 0.5039865 -0.9738413 0.3630825 -0.4497122 -0.3944563 0.6333391 0.1729657 0.3430985 -0.2035195 -0.4593794 0.4806528 0.2568071 -0.5175816 0.3425112 -0.6166073 -0.4697812 -0.8832266 0.6928277 0.5650088 -0.7869435 0.8489969 0.5754696 -0.2553451 0.4549331 0.4385438 -0.2524177 0.9267421 0.5830464 0.6420876
; 0.5312796 -0.5952886 -0.6519229 0.8600661 0.7673223 0.949338 -0.8193124 -0.1656557 0.229968 -0.0701131 0.5615007 -0.6623286 0.9191721 -0.1929173 0.2040931 0.4936191 0.9670183 0.1237564 0.9165369 0.7866608 0.091447 -0.5148518 -0.9411282 0.2725175 -0.5144427 0.0590928 0.1718969 0.6623841 -0.4380291 0.6428334
american -0.4003034 -0.8066493 0.1373661 0.3954627 0.5805383 -0.5564895 -0.0504805 -0.1311919 0.8664073 -0.883156 -0.9221016 -0.6734948 0.8455072 -0.3958789 -0.2874118 -0.3421154 -0.4831808 0.5054616 0.3085689 -0.0805074 0.1135715 0.7961947 0.5617811 -0.6740666 -0.9875834 0.7172843 -0.383717 0.6779094 0.1394475 0.238364
number 0.1952842 -0.0278521 0.6760491 0.8842729 -0.6685184 -0.5220668 -0.8343536 0.5150311 -0.9437425 -0.7906775 0.7917531 0.303465 0.7461092 0.3480503 -0.9973571 -0.4500129 0.4101381 0.2546884 -0.7123306 0.2801956 0.4318257 -0.0686292 0.7580913 0.6655034 0.7319523 0.7754298 0.1005848 0.1080566 0.441194 -0.0885444
two 0.4395074 0.3104335 0.9181135 -0.4749244 0.4451942 -0.5269623 -0.8448305 0.5036862 -0.5662028 -0.2519774 0.4078659 0.8017135 0.2396853 -0.7931122 -0.7759965 0.8872634 -0.6834673 -0.208792 -0.848845 0.1823026 0.4650584 -0.2403424 0.7052477 0.7198297 0.894671 0.7178081 -0.1011895 0.0340493 -0.9445596 0.5648625
lead 0.9305156 0.2732422 -0.6841376 -0.7318535 -0.0998294 -0.5238298 0.3664021 0.0279563 0.05917 -0.6631025 -0.2897838 -0.7414907 0.4910861 0.2302465 -0.2263328 -0.7783597 -0.180051 0.7171819 0.1843477 -0.1283626 0.9247828 -0.7230442 0.5924699 0.9194883 0.6844037 0.6663592 0.8350263 -0.8189751 -0.9516939 -0.4720318
more 0.2413474 -0.3255556 0.5324357 -0.3753472 -0.8900526 0.541479 -0.7234119 0.0946956 0.4204957 -0.7273226 0.5528842 -0.781852 0.7852234 0.1382258 -0.9141267 0.4375045 -0.3315588 -0.6099386 -0.6579953 0.0397164 0.076462 0.1791602 0.5438606 -0.2248184 -0.054223 -0.151826 -0.4284432 0.4393915 0.9801066 -0.1753313
law 0.4394186 0.1490116 -0.3443238 0.0418452 -0.1369963 0.1720673 -0.2858268 0.4223069 -0.3556233 0.0354958 0.7439768 -0.0724782 -0.6963565 -0.63924 0.9964884 -0.7240712 0.9729431 0.4100566 0.2073917 -0.2525943 -0.9946454 0.2210694 -0.3855277 -0.6395158 -0.0987557 -0.1722604 -0.6014397 0.8774044 -0.1161835 -0.2638887
july -0.3417528 0.8344722 -0.0114579 -0.2944481 0.9579495 0.1202959 0.8880118 -0.9548958 0.6251641 -0.4196002 0.2616177 -0.5506155 -0.0871941 0.7779435 0.2697581 -0.5844802 0.9927608 -0.3608535 -0.7454628 -0.6710177 -0.6686822 0.6419604 -0.0591949 0.6173335 -0.1403948 0.0646062 -0.7725414 0.4091406 0.458512 0.6218499
man 0.9612083 -0.9789363 0.1592321 0.768892 0.0696413 0.544606 0.1337054 0.6709721 -0.0585466 0.7631653 -0.8908338 0.1992871 -0.7676521 0.2505101 0.6006938 -0.4116823 0.95051 0.0860169 0.6477399 -0.206466 0.6037736 -0.3036571 0.4497285 0.496034 -0.2563268 -0.060136 0.864917 0.6180718 0.6831176 -0.9935458
your -0.2855518 -0.0743926 0.4704858 -0.6007777 0.3144335 0.4866441 -0.2446307 0.6461699 0.4359617 -0.0392477 -0.6771969 -0.2952094 0.5223843 0.7791053 0.1808829 -0.1055822 -0.49439 0.7634358 -0.1799151 -0.3818533 0.7448625 -0.633237 0.0490459 0.5467783 0.656745 -0.4994803 0.2631678 -0.8016922 -0.4319504 0.4525768
three 0.1526987 0.9589737 -0.3122566 -0.5038578 -0.6589544 0.8376842 -0.2544362 0.2608903 -0.7408305 -0.0253442 0.5144748 -0.8388581 0.2567594 0.0939642 0.7930585 0.8219126 0.1916357 -0.3854229 -0.5741477 0.5850875 -0.5560993 0.8457128 0.9162613 0.3429716 0.6815142 -0.0848532 0.6867792 -0.845415 0.8473963 -0.1883764
france 0.0091772 -0.1479342 -0.8010871 -0.1719466 0.1825881 -0.8079717 -0.0686961 -0.0408824 0.4171966 0.005798 -0.0065838 0.9716497 0.0253631 -0.9539881 -0.0334938 -0.85248 0.939684 -0.643493 -0.822855 -0.4797467 0.6828935 -0.1065259 0.7121368 -0.0218467 -0.3359144 -0.6480256 -0.2536322 -0.3054201 0.2812215 -0.9267357
times -0.3521608 0.6018289 0.052251 0.2401907 0.647298 0.2419806 0.4971291 -0.6717551 0.8531622 0.3949671 -0.5624588 0.8210602 0.6111492 0.3288364 -0.8284145 0.4465404 0.5188378 0.9875463 0.34262 0.3039313 0.8034821 -0.9254986 -0.1359651 0.9575671 -0.3492943 0.5763102 -0.0332616 0.3099763 -0.4769595 -0.1741058
expected 0.023628 0.8343124 -0.7124442 -0.0477461 0.820678 -0.9807341 0.2514075 -0.9424578 0.2790351 0.1566845 -0.79533 0.3184407 -0.6256775 -0.6828752 -0.0745425 0.5842708 0.2584051 -0.2820794 -0.3383715 0.510202 0.2388909 -0.9752311 -0.9306298 -0.8836844 -0.7717756 -0.6964836 0.4583003 0.918491 -0.8844555 0.8017468
among 0.3843888 -0.6899356 0.884158 0.0346176 -0.9826981 0.2163965 0.5268526 0.6419475 -0.9662425 0.9976123 -0.3513958 -0.7747807 -0.6270847 0.4159591 -0.4298203 -0.8620714 0.2970078 0.5911542 0.4408686 -0.5975999 0.6478281 -0.8736086 0.3242983 -0.1377375 -0.5224835 0.9306162 0.5965407 0.8971552 0.8459408 -0.2210581
another -0.3629769 0.8151166 -0.84298 -0.8407215 0.9196713 -0.179522 -0.1835802 -0.302979 -0.413946 -0.5652644 -0.1481658 -0.3933602 -0.3881885 0.3266986 -0.7495299 -0.0257357 -0.0834901 -0.7140937 0.5168842 -0.911157 0.477934 0.781652 -0.7468928 -0.2389952 0.2944492 -0.5906798 0.4763419 -0.7463914 0.7662008 0.6335574
1 -0.0925267 -0.1778873 -0.3119187 -0.4412163 -0.0061424 0.9604295 -0.3319972 0.2727604 -0.6033101 0.6098161 -0.8024682 0.6390886 -0.6089581 0.4310721 0.2939949 -0.6874639 -0.6065184 0.6291833 -0.4410757 -0.5240947 -0.9332479 -0.2052262 -0.7599346 0.8865062 -0.8552656 0.1753607 -0.6645997 0.5772776 0.443114 -0.6942883
one -0.6812985 0.1377978 -0.1650318 -0.4712199 0.7443635 0.1527481 0.3658792 -0.1654665 -0.197514 -0.167735 -0.6129449 -0.0478311 -0.7969484 0.8718013 0.5217937 -0.6441532 -0.6385091 0.1151683 -0.5301247 -0.2208982 0.5613092 0.5732836 -0.9226031 -0.0861042 0.3900651 0.6991707 0.6834723 0.8869658 0.2415645 -0.7423857
what -0.4412334 0.7450858 0.6051285 -0.8119007 0.2938411 0.4227443 0.4133897 0.7864679 0.2591511 0.0695792 -0.9928177 -0.2490725 0.7224242 0.1457386 0.5756171 -0.7453622 0.9528703 -0.8528459 -0.8849581 0.4606473 0.5625106 -0.7196677 -0.4275382 0.8241583 0.9085398 -0.7641042 -0.2199842 -0.8872721 0.7878731 0.421366
campaign -0.5476235 0.6326435 -0.004516 0.213563 0.9074299 -0.5543438 0.3165807 0.0132402 -0.9221034 -0.1937379 -0.0274463 -0.9425924 -0.3635459 0.0859522 -0.8318169 0.8182298 -0.0656173 0.2049483 -0.8383804 0.0783597 -0.2651372 0.1822466 0.271392 0.4009986 -0.5715306 -0.4889336 -0.3594009 -0.7555708 0.3280343 -0.2630968
their -0.536443 -0.9850261 0.9510545 0.5001328 -0.8658189 0.7384533 0.139565 0.2542138 -0.176825 -0.3347952 -0.2807556 0.2786344 -0.4276751 -0.6748119 -0.4254378 0.4475235 -0.5547302 0.4886538 0.9911318 0.7350614 -0.9742286 0.6735431 -0.2384424 0.1632303 -0.2057762 0.3416317 0.0813393 -0.9697922 -0.900559 0.5357755
any -0.6153737 0.893386 0.288301 0.7820791 -0.2330426 0.2591797 0.9060992 0.0720548 0.8517277 -0.5080312 -0.1403755 -0.0949557 0.384964 -0.2474635 -0.7029205 0.451601 0.9210459 -0.367961 0.7516365 -0.5003559 -0.6331272 -0.2354641 0.9861366 -0.45286 -0.5307438 0.9315578 0.6054988 -0.2399393 -0.4186231 0.0269851
service 0.0875394 -0.0025258 0.2894283 0.7065501 -0.1122925 -0.7913677 -0.2495516 0.7903983 -0.3110279 -0.2635578 0.8908271 -0.3275908 -0.8820148 0.7027456 0.2321794 -0.4550797 0.3307872 0.1168178 0.9298947 -0.2700359 0.3268252 0.5890451 0.1424082 -0.871186 -0.4396147 0.414559 0.7866335 0.6961712 -0.4726058 0.7759333
iraq -0.10407 0.7313549 0.1220574 0.8929688 -0.4250123 -0.7214553 -0.251652 0.4726973 0.6378558 -0.5863636 -0.4551777 -0.3108678 -0.4621424 0.3272427 0.0789874 0.4092179 0.0067869 0.4901734 0.558259 0.6408868 -0.8593266 0.5260093 0.3849409 -0.0405677 0.1317453 0.6464766 0.4208382 0.1387508 0.6696983 0.8810395
army -0.5449586 -0.9583554 0.6166546 -0.8209711 0.1587036 0.3364688 -0.0908442 -0.9031663 0.8502792 0.0678179 0.1281926 -0.8514497 0.0016496 -0.3048418 0.2223353 0.9052757 0.8603282 0.9460969 -0.708748 -0.8151196 -0.0632194 -0.7827758 -0.0927646 0.4621866 -0.5555868 0.7165046 0.5934951 0.5448 -0.5641025 -0.7334885
had 0.1585129 0.1951179 -0.9976677 0.5623381 -0.0260813 0.9297268 -0.9560573 0.3841653 0.5842891 -0.488191 0.4953636 0.634134 -0.4493956 -0.9152333 -0.2810605 0.8052936 -0.5461769 0.5091018 0.1199467 0.2267112 -0.9790764 0.7575146 -0.4838767 0.3280165 -0.315963 -0.8426033 -0.3431417 0.6199292 -0.223115 -0.4867156
would 0.1742675 0.8096078 0.9636162 -0.8710265 0.3051865 0.1213555 0.8581813 0.8381394 -0.0654689 -0.2546848 0.8379577 0.3359811 -0.5529453 -0.5902576 0.3341544 -0.5794252 0.6365978 -0.5170243 0.6015341 -0.2240453 -0.1689067 -0.9323403 0.1331878 0.0167023 0.0269996 -0.9958855 -0.3795157 -0.3312894 -0.1482491 0.0639247
development -0.8774409 -0.669291 -0.6479204 -0.6039898 0.2348075 -0.6689349 -0.8345159 -0.3888696 0.0384587 -0.0333541 0.9115325 0.2928785 -0.7107416 0.0594515 -0.143131 0.7657634 -0.5076037 -0.759584 -0.1394904 -0.2031448 -0.6647939 0.770411 -0.8962403 -0.4661113 0.8490288 -0.6211488 -0.0049589 -0.4119506 0.8305954 -0.1866538
free -0.3202909 0.7012531 -0.4876328 0.5221587 0.6073584 -0.9139877 -0.0132781 -0.2625001 0.5995345 -0.6729122 -0.1574492 0.8794244 0.2481495 -0.02844 -0.9110825 -0.4120792 0.4128417 -0.4150757 0.7250407 -0.0071718 0.7009151 0.6451635 0.196881 0.6868423 -0.6991756 -0.3071783 0.7377587 0.4303823 0.1659662 0.6504241
