series -0.4822868 -0.0105852 -0.4517081 -0.8575079 0.7146784 -0.5220833 -0.9148796 -0.4963721 -0.472673 0.9285886 -0.6296872 0.1372798 0.5314166 0.6169613 -0.0118178 0.826117 -0.1626484 0.5856119 -0.9197091 -0.8460068 -0.2968557 -0.5761272 0.6103162 -0.53608 0.3596963 0.3087381 0.2847338 0.6139187 -0.7703303 0.4762523
play 0.3385769 -0.3366643 0.0816135 0.2946185 -0.5904499 -0.800248 -0.8427183 -0.0760034 0.7637378 0.712565 0.4749218 0.9622759 0.5758263 0.0259077 0.8884877 0.207698 0.4254302 0.7655385 -0.5198025 0.3459706 -0.7067869 -0.2277742 0.7107743 -0.9472945 -0.0494399 -0.3516774 0.1573571 -0.6200189 -0.6791124 0.7085675
college -0.0311988 0.9962052 0.937942 -0.0529074 0.8380196 -0.5647294 -0.8419735 -0.0127648 0.0296493 0.4683467 -0.2567664 0.3279449 0.0017479 0.9184074 0.5064381 0.4126312 -0.0487597 -0.7861644 0.5874014 -0.8077905 0.1703085 -0.5939637 -0.3548876 -0.9898379 -0.7121333 -0.206965 0.2187967 -0.0231731 0.7053147 -0.1861213
- 0.0546074 0.5130748 -0.0445413 -0.7936923 0.6110575 -0.7897901 -0.6073033 -0.9665281 0.1117725 0.2365364 0.5262914 0.7300998 0.559838 -0.5434407 -0.9668621 -0.3535759 -0.2523992 -0.7693451 0.5454833 -0.4106067 -0.1698652 -0.5611425 0.9376612 0.8764249 -0.4369528 -0.7861267 0.1396412 0.3313611 0.1412321 0.7171068
most -0.0810704 -0.1102765 0.5422939 0.1082279 0.8543074 -0.3760505 -0.2210026 -0.9789264 0.6904315 0.0769047 -0.8542326 0.0110305 -0.0209916 0.6888218 -0.1340328 0.4986679 0.399291 0.5601325 0.2347648 0.9749845 -0.5962346 0.6053281 -0.1412586 -0.7350198 0.4377463 -0.1668074 0.4382544 -0.7786797 0.677607 -0.5361373
our -0.19346 0.7389396 -0.702707 -0.0708131 0.2494609 0.2766601 0.5187526 0.8554387 0.2821362 -0.6849283 0.9046837 -0.0038392 -0.4727579 -0.4549791 -0.9243295 -0.0739415 -0.0829182 0.7160367 0.3302091 -0.5674362 0.9321912 0.3657908 -0.3096576 0.6408154 -0.4915805 0.2050971 -0.6633929 -0.5270343 -0.399203 -0.8822382
killed 0.3393852 -0.8775782 -0.4599942 0.1432246 -0.5415924 -0.4488779 -0.0944302 -0.6215749 -0.2310332 0.2036168 0.6013968 -0.1238005 -0.3868506 -0.0350606 -0.6779232 0.5767124 0.8676036 0.2220682 0.4677195 -0.7327323 -0.5773351 -0.8114778 -0.2947131 -0.5246562 -0.7907726 0.0285019 0.0479491 -0.0750944 -0.9857082 -0.5741468
water -0.9469657 -0.6183117 -0.1246329 0.5739059 0.3593842 0.9709393 -0.2712806 -0.5444797 -0.59548 -0.3921954 -0.8287823 -0.7731608 0.0736299 -0.6777202 -0.5572129 -0.7366622 0.5383495 -0.3778731 0.6979595 -0.1660143 0.2928316 0.7172784 -0.3446878 -0.3971723 -0.7216867 -0.6233411 -0.0776331 0.3087679 0.8993104 -0.9192128
lead -0.6273067 0.2080723 -0.4669838 -0.1313119 0.8805913 0.8962415 0.2816886 -0.3400113 0.1595324 -0.2241043 0.3423868 0.4720681 -0.8296911 0.3448665 0.3814006 0.7723046 -0.7934475 0.3085605 0.2874198 0.5740777 0.5988626 -0.4172941 0.25904 0.8514895 0.6289774 0.3478149 0.184456 -0.2972173 -0.5470573 -0.9810571
held 0.4160107 -0.8797913 -0.4010991 0.0054116 0.219384 0.734872 -0.4485842 0.014463 -0.6525041 -0.2045171 0.0167207 -0.214371 -0.7392944 0.8020306 0.0982595 0.7131821 -0.7672166 -0.7948352 -0.5496097 0.286074 0.4078683 -0.8437891 0.5238418 0.1452171 0.29693 0.4453851 0.3414072 0.6218592 0.6124002 -0.1990231
reported -0.5339645 0.43891 0.5554287 0.9377616 0.5624095 0.7800535 -0.1954374 -0.1244673 -0.4013218 0.2092007 -0.7955682 -0.5275543 -0.971276 -0.737622 -0.381381 0.2207918 -0.9972126 -0.1884308 0.2721829 0.7222293 -0.5537616 -0.9338766 0.464765 0.2940825 -0.3016984 0.7783615 0.6434841 -0.0855032 0.829677 0.2732698
large -0.9366998 0.0817585 0.2492397 -0.6860545 -0.5152328 0.692037 -0.6317992 -0.1355566 -0.3767516 0.7875198 0.4380112 0.9296782 0.2228727 -0.197706 0.7460943 0.253064 -0.7170791 0.703356 -0.5522826 -0.0904698 -0.0768246 0.7552852 -0.9486207 -0.4066745 -0.9459269 -0.1907247 0.222009 -0.6777681 0.018918 -0.3281427
wednesday -0.1087389 0.6292722 0.5620871 0.9355468 -0.3183487 0.5594238 0.4703406 -0.0185138 -0.8062333 0.4393738 -0.5372425 -0.0844965 -0.594938 -0.0913677 -0.917896 0.6162715 0.8247373 0.8764783 0.5401254 0.6723062 0.712198 -0.755303 -0.4975696 0.0267339 -0.8700651 0.5076864 -0.8312429 -0.4537388 -0.8322558 -0.621959
seven -0.0954814 -0.996551 0.3177213 0.749414 0.5768523 -0.710652 0.4200454 -0.3785615 0.3510474 -0.3774846 -0.7072614 -0.3618391 -0.0318006 0.1339581 -0.9496394 -0.0395286 -0.4142817 0.5809815 0.379999 -0.0762765 0.7517817 -0.0348048 -0.1792816 0.6494679 0.562539 0.384038 -0.3484711 -0.6435917 -0.5925036 -0.1140888
season 0.883038 -0.7748853 -0.1000648 -0.3219212 -0.9219911 -0.3577757 0.3017078 -0.9654379 -0.0772892 0.4691027 0.2994917 0.251495 0.6006894 0.5269863 -0.286991 0.5945342 -0.1760575 0.7496369 0.9175691 0.6848432 -0.7974239 0.8730305 0.3529507 -0.2536023 0.5559338 0.755247 0.4252152 0.7280872 -0.3816905 0.5484541
leader -0.6725662 -0.8535095 -0.9586347 -0.5852166 0.0304525 -0.4778193 0.9596889 -0.4237137 -0.2557045 0.0496255 -0.2187613 0.8871978 -0.1550375 0.5217209 0.6862069 -0.8279774 -0.3067476 0.8394608 -0.8735435 -0.2135789 -0.9327899 -0.7606913 0.5760437 0.0218048 0.4652685 -0.9266322 0.5615206 0.1523145 -0.015216 0.8424318
way 0.9022516 -0.4734421 -0.6778461 0.9410675 -0.2216628 0.338511 -0.0959062 -0.2050674 -0.0330326 0.0783439 -0.3419685 -0.982359 -0.4743381 0.3430473 -0.3269453 0.8261586 0.3533411 0.8563638 0.5775587 -0.0605846 0.8511611 -0.8179552 0.0765261 0.3389849 0.7559664 -0.0856384 0.010829 -0.4505732 -0.681684 0.7055118
left 0.0170256 0.8121553 -0.9636766 0.3641193 -0.6461993 -0.2365849 -0.3118533 -0.8999429 -0.123792 -0.1238687 0.499228 0.0235395 -0.8599986 -0.5955878 0.5800261 0.6573453 0.8183084 -0.6022546 0.712538 -0.2143313 0.7341078 0.2029595 0.1262661 0.7994305 -0.6583293 0.10442 -0.594695 -0.1954784 0.6678318 -0.7598287
does -0.1655686 -0.5074429 0.1011461 0.7570455 -0.0297746 -0.9474431 0.0789518 -0.3592438 0.3014595 -0.2980991 0.012439 -0.8392253 -0.2575196 0.9926329 -0.0616493 -0.6489305 -0.4070783 0.6044954 -0.731137 -0.1501213 -0.4860483 0.8361328 0.8988352 0.0264134 0.1096938 0.3070712 0.6589151 0.7836434 -0.8103538 -0.5084497
region -0.3461336 0.5984766 0.6018355 0.0386934 -0.6879135 -0.8528859 -0.1259008 -0.1542134 -0.5285061 0.8634605 -0.6139571 -0.0037908 -0.4208566 0.6138484 -0.8354498 0.0224379 0.3788437 -0.2781695 0.3040381 -0.5000325 0.1759792 0.0792815 -0.9774378 0.3284802 0.0927121 -0.3804283 0.2298946 -0.2126312 0.330574 -0.1031083
very 0.7815849 0.0900375 0.7037982 0.9355185 0.3242944 -0.0324737 0.8597847 0.4700644 -0.1358216 -0.1990112 0.6543398 -0.9017593 0.5215303 0.8900828 0.9947192 0.4166082 -0.1938046 0.1065541 -0.7252258 0.9340392 -0.8803398 -0.361786 -0.4736641 -0.8394278 0.6389456 -0.3006929 0.9562681 -0.429348 0.6744132 0.5546373
11 -0.3416499 0.5327261 0.4277245 0.2876712 0.5227241 -0.6495826 0.0406898 -0.8948994 -0.1978957 0.0420124 0.6474638 -0.6490768 0.8008038 -0.7154419 -0.478752 0.1960713 -0.4865953 0.5330144 0.8044665 0.4604546 -0.0798347 0.9094904 -0.2912188 -0.473475 0.1002474 0.0803108 -0.4754494 -0.66348 -0.2915476 -0.0732975
they -0.1884654 0.8211372 0.3433348 0.9749565 0.1871686 -0.8743626 -0.5816273 -0.8442484 -0.180893 0.9732268 0.5796998 -0.0448031 0.0018038 0.2463802 -0.8768597 -0.0667971 -0.9039291 -0.080964 -0.3377247 -0.7342404 0.0737653 0.8932018 -0.2934925 -0.2720697 -0.7746048 0.2776243 0.2411181 0.9654259 0.4795858 0.2367335
