night -0.8702522 0.2566988 0.1499955 0.481243 -0.9041346 0.5119096 0.213242 0.7360632 -0.2379263 -0.623445 -0.5013752 0.8243732 0.4708375 0.117394 -0.0062073 -0.9681578 0.9104759 0.9270889 -0.4934923 -0.2649495 -0.7534205 -0.3590343 0.6473561 -0.3798742 0.3337614
bill -0.1504116 0.9001971 0.6518642 -0.6348463 0.2585121 -0.6550066 0.5679596 -0.152501 0.5169883 -0.2352903 0.972786 -0.1659944 0.0483234 0.9497252 0.116236 0.8320953 0.8764043 -0.7000927 0.8575514 -0.8611512 0.8184106 -0.7812729 0.0590086 0.7683314 0.5737604
peace -0.3478605 -0.0628221 -0.989585 0.251773 0.8660847 0.3002657 -0.1770622 -0.4131272 0.4441211 0.0804482 0.2601472 0.7579743 -0.305952 -0.2275007 -0.8474335 0.387464 -0.6425535 0.1685154 -0.3154856 -0.0447569 -0.9955816 0.7981647 -0.8654005 0.5793251 0.6104713
today 0.073168 -0.3905535 -0.2018132 0.8078759 -0.5603244 0.4249669 -0.6235994 -0.8561622 0.9679542 0.2892633 0.7794732 0.9415115 -0.5230409 0.9460699 -0.9096719 0.7193856 -0.4961338 -0.5461194 -0.7542892 -0.3193219 0.9791108 0.6878947 0.0598268 -0.7785016 -0.6463064
talks 0.0827141 -0.4268006 -0.0416362 0.2049648 0.8005369 0.4473024 -0.5774652 -0.8784224 -0.4346931 0.824146 -0.822127 0.9038141 0.1927255 0.0196905 -0.0734099 0.5557758 -0.2517472 -0.7917387 0.3225905 0.8810062 -0.4185204 0.9088821 0.1482379 -0.7703342 -0.2017214
" 0.652407 -0.5192652 0.1451049 0.4353113 0.9730323 0.3894124 -0.3766087 0.8002193 -0.0060444 -0.8483703 -0.5798584 0.0146169 0.8690374 0.8954136 0.2942735 -0.5326256 -0.433255 -0.91163 -0.7967377 -0.713846 -0.4506624 0.6081031 0.6422474 0.5880108 0.421948
al 0.4362314 0.2656143 0.4022778 -0.2250453 0.8400668 -0.4122726 -0.4444353 -0.9916133 -0.5712283 0.9925586 0.3170074 -0.625285 -0.3415846 0.6072544 0.221118 -0.0087343 0.4511906 -0.2266178 0.8554399 0.8899656 0.0391245 -0.3952914 0.8251837 0.7488045 -0.9391258
clinton 0.616916 0.5368257 0.5970771 0.5595971 -0.9011445 -0.9559623 0.76709 0.0408234 -0.6310902 -0.2263531 -0.8992152 -0.081209 0.3138089 -0.1162588 -0.7076097 0.0554776 0.3922701 0.6944145 0.0287078 0.5780374 -0.0058785 0.1142392 -0.3996429 -0.3797712 -0.3308075
earlier 0.2422712 -0.6252802 -0.2887868 0.9011975 0.7951492 0.4500476 0.8466765 0.2804299 -0.9748768 0.9672761 -0.5210808 0.945925 -0.4462528 -0.3273469 0.1403535 -0.6529834 0.233741 0.3709673 0.9583681 0.4372204 0.7299672 -0.4648821 -0.24539 -0.1143307 -0.0060936
win 0.3788093 -0.0863804 0.7836089 0.0440156 -0.5815605 0.1361397 0.5366574 -0.9582607 0.3728669 0.4048492 0.1723101 -0.8582812 0.2872047 0.002983 0.6197516 0.8670834 -0.7175353 -0.8026387 0.2982866 -0.7604755 0.0832689 -0.149222 -0.764595 0.4577855 0.2208116
better -0.6642293 -0.3644364 0.0461348 0.1284 -0.9311592 0.936322 0.0598344 0.4827028 -0.2296904 -0.0652396 0.7771592 0.6164512 -0.3078968 0.5793471 0.4431983 -0.7291114 -0.7666025 0.1089159 0.1826312 0.7267214 0.1475671 -0.8503431 0.3830015 -0.9737212 0.9158931
home 0.5220487 0.6029224 -0.6444924 0.0441602 0.1148938 0.2622679 0.974622 0.4826824 -0.8351475 0.9362817 0.138743 0.4609812 -0.8347139 0.6906974 -0.9586047 -0.4189173 -0.4044298 -0.8519814 -0.1459921 -0.9466953 0.5464486 0.7560115 0.8419252 -0.4200011 -0.4770961
into 0.5346071 -0.2377067 -0.4061457 -0.8898719 -0.1675285 -0.2753361 0.9732859 0.1429697 -0.0777659 -0.4265986 0.8140021 -0.5946951 -0.9732446 0.7811024 0.548363 0.5433564 0.6019568 0.5660546 0.8072396 -0.5343025 -0.7451004 0.2323596 0.8764709 -0.8307398 0.3569476
group 0.7444891 0.61558 0.6989598 -0.2752904 0.9888335 -0.0527755 -0.8377202 0.8604433 -0.4288931 0.0155096 -0.3401848 -0.9741335 -0.9153644 -0.8925879 -0.4699037 -0.2498796 0.2511369 0.4077319 0.2477976 -0.4643965 -0.4771098 0.5450816 0.1019626 -0.9183868 0.3682089
chief -0.0799148 -0.1000197 0.9028823 0.7212473 0.2064265 0.3019515 0.1646537 0.157787 -0.6276851 0.1423267 -0.8327481 0.2169554 0.1531354 -0.5589769 0.0545546 0.3775386 0.4151181 -0.1282033 -0.7013267 0.4695803 0.616214 -0.6694681 -0.9562952 -0.978214 -0.6253853
small -0.0529006 -0.7962226 0.9080452 -0.8900539 0.7146149 -0.4332732 0.1864532 0.2195025 0.2095055 -0.2654613 -0.9248892 0.2959089 0.9114412 0.5702784 -0.4980628 0.0942889 -0.5534929 -0.4913554 -0.6574908 0.4586938 -0.9943532 0.0316123 -0.3760057 0.3498644 0.2397861
first -0.2606588 0.0641443 0.8634896 -0.5427757 -0.2445056 -0.5053413 0.238707 0.423607 -0.7781944 0.0792883 0.4462769 -0.3922029 0.1251104 -0.0935726 -0.4971365 0.0758522 0.7545345 -0.1389654 -0.541219 -0.0777378 0.8498674 0.7567148 -0.4004112 -0.1738586 -0.386983
saying 0.069753 -0.4466186 0.6996554 0.0350808 -0.0081478 -0.191007 0.2075851 0.9866334 -0.5454207 0.6762213 0.8093642 -0.5248874 -0.6545781 0.624443 0.243878 -0.7071046 0.4411752 0.4553594 0.8684769 0.0727057 0.4178045 0.5778295 0.7135625 0.710853 -0.9407787
5 0.5716494 -0.3766511 0.8976838 -0.5952516 0.8040577 -0.2118431 -0.5104663 0.0540717 -0.4253722 0.2470331 0.3585844 -0.8223149 -0.3807348 0.1302104 -0.1710028 -0.1475811 -0.698302 0.7939213 0.3132961 -0.4024987 -0.4662322 0.1116681 0.2070908 0.6350942 -0.1418276
market 0.2637324 0.667076 0.6581316 -0.3735284 -0.3069983 -0.400527 0.4268015 0.2160112 -0.2369327 0.7583967 0.3490393 0.9257735 -0.874797 0.9390636 -0.8260203 -0.918766 -0.2798914 -0.3823692 0.4624341 0.5543036 0.732704 -0.9099965 -0.9261683 -0.3675493 0.9940607
game 0.7627327 0.5503614 -0.4988828 -0.5445685 -0.2299218 0.6506401 0.7539338 0.1868876 -0.0018165 -0.3237396 -0.5569434 0.0933896 0.9109535 -0.5577329 0.3520303 -0.9042302 -0.982183 0.2935632 -0.4267982 -0.3850573 -0.5364048 -0.6496875 0.9297986 -0.3959197 0.254725
council -0.1339804 -0.2602935 0.2333644 -0.5054772 -0.883721 -0.5514589 0.8592338 -0.2272002 -0.7259158 -0.6942318 -0.2728777 -0.8059266 0.1460851 0.5358528 -0.0872288 0.3068764 -0.1420703 0.083252 0.369428 -0.5689085 -0.7035081 0.3032492 0.9354437 0.505432 -0.7559942
any 0.3612532 -0.9294752 0.1050215 -0.3232966 0.7292762 0.1108101 -0.1467026 0.995826 0.5413984 0.5607964 0.9775159 -0.945492 0.3295656 0.0795921 -0.6079991 -0.0223913 0.4279951 0.5316069 -0.5448775 0.6191965 0.623626 0.3666337 0.1466557 -0.2075769 -0.5323271
far 0.5347234 -0.9999443 0.3975372 0.4000657 -0.9591654 0.9449515 0.0864898 0.1255064 0.8271325 -0.9173077 0.7866801 -0.0065245 0.3474996 -0.1353018 0.6896723 -0.0593874 -0.3586124 0.2983087 -0.0191508 0.6325959 -0.3729727 0.1766402 0.1065085 -0.370286 -0.4673305
officials -0.9124202 -0.8224627 0.9225265 0.4606517 0.7562786 0.3415031 -0.239098 -0.9029202 0.9251925 -0.413497 -0.0076195 0.8102164 0.8042927 -0.7640998 -0.1794511 -0.2340354 0.378567 -0.565143 -0.7677322 -0.2396352 -0.2573823 -0.4838833 -0.0115863 0.5433395 0.3113582
business 0.5744209 0.2219472 -0.4223811 -0.0137084 -0.5074204 -0.9364079 -0.9890014 0.0457964 0.2459578 0.2940085 -0.2040413 -0.2685066 -0.5785369 0.3284821 0.0526769 0.0429167 -0.1992322 0.4248821 0.3497067 -0.3444296 -0.5002075 0.1602561 -0.8848144 0.7027697 0.8778016
south -0.2768243 -0.0015155 0.8278453 0.7057714 0.2171754 -0.300969 0.1102783 -0.5261208 -0.2051964 0.041212 -0.8042156 0.6888147 -0.0240863 0.160745 0.8623241 -0.2844213 0.2517903 -0.9001928 0.8500223 -0.0989817 -0.5958707 0.832789 0.0697701 0.1455701 -0.9395476
lead 0.6495971 0.7862777 -0.364187 -0.0478771 0.6308545 0.2814739 0.5143638 0.7737322 -0.5022664 0.300515 0.4206812 -0.1461189 0.3044166 0.0177492 0.8354874 0.5944387 0.4500255 0.815742 -0.0125051 0.8544523 -0.7372327 -0.5453356 0.2935136 0.3964617 -0.0948318
open 0.9620248 -0.5380236 0.8683234 -0.7565989 0.8088475 -0.949663 0.5161681 0.212055 -0.9855142 -0.9479481 0.7909005 -0.7001733 0.6853906 0.7924909 0.2891604 0.4993296 -0.1488378 0.4535082 -0.0013906 0.7700526 0.2323949 -0.6294839 -0.8760483 -0.9156914 -0.3231598
reported -0.6970428 0.5479258 -0.7654364 0.179931 0.1669548 -0.1773627 -0.6598321 -0.5506312 -0.2756366 -0.5161714 0.738747 -0.0698579 0.9254611 0.2008243 -0.3332844 -0.2222772 0.6360088 0.7468395 -0.3520761 -0.2175972 0.6235506 0.0366111 0.1637737 0.006186 0.3477209
before 0.4774336 0.0599171 0.887307 0.0859081 0.0522065 0.957711 -0.2788003 -0.1589826 0.7772222 0.6661253 0.907322 0.7573451 -0.5863582 0.0622079 0.1077096 0.062285 -0.0249595 0.949457 -0.7913485 -0.0065722 0.1222364 0.1748898 0.3598658 -0.5973436 0.4191339
