without 0.5064688 -0.286666 -0.5273471 -0.6357654 0.0719681 0.0102762 0.3734667 -0.4027218 0.5487672 -0.2593306 0.5062248 0.7174956 -0.7610777 -0.0575384 0.6798081 -0.2070259 -0.6740776 0.7998134 -0.7872634 -0.8616139
had -0.775674 0.1351554 -0.5218436 -0.6398037 -0.0961392 0.4453572 0.0236647 -0.6914923 -0.6014926 -0.4563639 -0.2737648 -0.7547669 0.728078 0.2517642 -0.8049562 -0.9956971 0.4764777 -0.0712269 -0.4431937 0.7898896
with 0.3781005 -0.1022942 0.1648427 0.2632682 -0.7819439 0.7301891 -0.9416849 -0.3394512 -0.3267073 -0.5614627 -0.2735226 -0.2911432 0.4936334 -0.1626604 -0.4598662 0.3900516 0.9102946 0.6230274 -0.1841381 -0.4553151
career 0.3348433 0.0004981 -0.0911606 -0.5734455 0.4384315 0.3965331 -0.111315 -0.6392773 -0.6761733 0.7114883 -0.296847 -0.8181538 -0.3129333 -0.7262846 -0.4640593 0.2275221 0.8459742 0.8288752 -0.8038106 -0.6689379
over 0.6170579 -0.7488526 0.099041 -0.4961694 0.7028396 0.6693575 0.9301498 0.9773255 -0.459764 0.9468837 0.6336608 -0.3672192 0.9596768 -0.5545082 -0.8672981 -0.0512482 -0.827763 -0.4107747 0.732438 -0.7406393
march -0.7523639 -0.7023014 -0.8514102 -0.3471738 0.7127399 0.5130653 0.453085 -0.3088156 -0.8195228 -0.0589591 0.623475 0.3747683 -0.4784693 -0.8721253 0.920187 -0.8625689 -0.5777196 -0.7983698 0.087519 -0.727285
known -0.7043205 0.2827001 -0.6132461 -0.5732684 0.817462 0.6440241 0.8237386 0.6800421 -0.8553461 -0.4971612 0.9594127 -0.9013153 0.6708497 0.0391581 0.3829833 -0.7804395 -0.5148954 -0.8512859 0.9075559 0.6696552
program -0.6460145 0.8235676 0.143796 -0.5569588 -0.6092101 0.1721113 0.347519 0.2274894 -0.4234124 -0.2742995 -0.4649246 -0.45987 0.5794165 -0.102706 0.0457428 -0.7886021 0.3512191 -0.0297619 0.3322818 0.9140486
cup -0.8631408 -0.9235665 0.5846075 -0.106682 -0.74155 -0.2800387 -0.6685173 0.8384548 -0.869353 0.6500512 0.7167446 0.2848181 0.4154615 -0.7344304 0.2161458 -0.1754679 0.1779157 -0.4843654 0.7317244 -0.0431025
court -0.4455671 -0.0997403 0.2327085 -0.7661414 -0.888433 0.706946 0.5235724 -0.3340087 -0.8588151 -0.7929866 -0.653098 0.8296406 -0.6603595 0.2322608 0.2606167 -0.880411 0.5627957 -0.7705007 -0.5972637 0.9128985
will -0.0748958 -0.6405737 0.9211126 0.5406309 -0.8729293 0.0502639 0.4560134 0.4513396 0.2805769 0.5640727 -0.986956 0.3498913 0.4822711 0.0003388 -0.7610467 0.7334785 0.2996083 -0.032045 -0.1170816 0.6878113
issue 0.6256967 0.432787 -0.8516565 0.9765326 0.0031053 -0.3592852 -0.2336102 -0.1759047 0.422885 -0.8294809 -0.4437259 -0.627798 0.9864333 -0.4459008 0.0735881 0.6744235 -0.7858016 -0.3398905 0.4825101 0.9170509
even -0.6239023 -0.0328925 0.9488235 0.9462163 -0.0168957 0.7355548 0.1770185 -0.0533673 0.894244 0.890484 0.9082799 -0.7966532 -0.6161846 0.5394115 -0.9461929 -0.5004104 -0.2658967 -0.6477993 -0.3732269 -0.1460931
high 0.7494757 -0.4847706 -0.4824571 -0.4097727 0.892783 -0.2103663 -0.2622765 0.5559849 0.828107 -0.3173547 0.9501326 -0.2697077 -0.0398626 -0.4066058 0.7122585 -0.1508398 0.7739109 -0.313388 0.9321353 0.8736407
like 0.3664015 -0.3217255 -0.2525494 -0.425148 0.2588459 0.4370668 -0.1448634 -0.7062785 0.9223657 -0.6953322 -0.3159222 0.877318 -0.6068317 0.3031991 0.3154819 0.9250334 -0.4868908 -0.4802383 0.2534948 0.8086649
... -0.2344918 -0.1762437 -0.2487879 -0.6812556 0.7802085 0.4309173 0.9749655 0.4822586 0.5242546 0.1063696 -0.7661598 0.9390949 0.157009 -0.1169428 -0.9295392 -0.6339886 -0.5444397 -0.6388718 0.2100064 -0.3962028
according 0.4864588 -0.0936167 0.3597428 0.0822729 0.2189719 0.0059083 0.4264787 -0.7493157 0.2478894 0.4032362 0.3020175 0.66114 -0.2093506 -0.878754 0.1210717 0.9139962 0.1690566 0.1144818 0.2265626 0.5329464
down -0.9799494 -0.5256531 -0.7995028 0.1216374 -0.0880826 0.2710031 -0.809419 0.8328371 -0.1216799 0.4975836 0.5142827 -0.141695 0.7832816 0.5938462 -0.022864 0.4796035 0.3863288 0.4719661 -0.5626495 -0.4313023
local 0.3081191 0.3432463 -0.4775074 0.1759817 0.4089565 -0.0551447 0.0982557 0.0028484 0.1752084 0.1674836 -0.6065888 -0.6106493 0.0579896 -0.3898179 -0.0768019 0.3911076 0.8389902 0.4400304 -0.9952002 0.6278557
within -0.8195677 0.5911176 -0.793548 0.9955197 -0.0873149 -0.0759722 -0.4238905 -0.4456878 -0.4843619 -0.6610706 0.332314 0.8511373 -0.1881556 0.2166799 -0.7857345 0.5460003 -0.0195909 -0.6333128 0.8290988 0.2149336
but -0.9885851 -0.0976195 0.957684 -0.8713636 0.9921916 0.8290364 -0.3504876 0.9102388 0.5946968 -0.2631867 -0.7369632 0.2888422 -0.8520798 0.4946741 0.2313262 -0.9259369 -0.7075834 0.014821 -0.3249814 -0.3529623
department -0.4708253 0.4563744 -0.6627621 -0.2007446 0.1815766 0.5691374 0.0250998 0.9046444 -0.0494581 0.2189514 -0.5899372 0.7613252 0.4970578 0.5931458 0.1066779 0.990231 0.1072447 -0.2804147 -0.2884748 0.5581291
lead 0.5479206 -0.1497888 -0.4658039 -0.5886285 -0.9272862 -0.3667108 -0.2446554 -0.9188795 0.0880532 0.8741735 0.214061 -0.5334734 -0.1549458 -0.5980304 -0.6971996 -0.7027103 0.1828457 0.6384302 -0.3170521 0.8468061
leader -0.4096936 -0.1795744 -0.7347078 0.2789394 0.7505668 0.5433816 0.5664826 0.8270818 0.8846032 -0.6286564 0.9063465 0.8910018 0.0313221 -0.1982767 -0.5677047 0.0990063 -0.222701 0.3404346 -0.1260591 -0.0813198
too 0.3077992 -0.9088194 0.1282574 -0.6680406 -0.3771199 0.3756329 0.290596 0.543536 -0.4764157 -0.1893605 -0.7175703 -0.216997 -0.1716094 -0.3492308 0.1972062 0.0038604 0.2828336 -0.2025236 0.8406019 0.0733907
again 0.3996863 0.3117457 0.1707497 0.0672632 -0.0208027 -0.42256 -0.6001 0.3720239 -0.3851648 -0.662986 0.0008907 -0.9086039 0.8515681 -0.5611626 -0.9653045 -0.8102421 0.637398 0.8523552 -0.0561533 -0.2736821
information 0.3608773 0.3042807 0.2114819 -0.6190654 0.6413389 0.7070945 0.3676702 -0.6528974 -0.4712304 -0.2835761 0.1473245 -0.0887599 0.9300346 0.8724274 0.1411964 0.9067301 0.9626494 -0.4015506 0.3523997 0.3867227
states -0.7208997 -0.0088898 0.7960392 0.8152918 -0.3647414 0.7591452 -0.647638 0.8417507 -0.5026903 0.3497729 0.5973862 -0.9874513 0.9138349 -0.9180929 -0.3971333 0.7351463 -0.3758084 -0.7167811 0.4713388 -0.8144574
well 0.0732585 0.2367051 0.4352183 -0.7590844 0.5441889 -0.506192 0.1523705 0.5496664 -0.9691195 0.7538375 -0.1999188 0.4295215 -0.745627 0.0701525 -0.9158476 0.2675535 -0.4790128 0.1710356 0.7690785 -0.0094604
population 0.3004107 0.8081096 -0.8639962 0.231244 0.1100031 0.4296659 -0.0626724 0.644029 0.3929131 0.6974216 0.2245564 0.4163973 0.4738622 0.8976476 0.6956999 0.4369039 -0.5370032 0.8817784 0.9719323 -0.1853811
center -0.1567027 -0.3407237 0.0142299 0.7466241 0.9404411 0.8993193 -0.3956385 -0.0455624 -0.9688882 -0.7300051 -0.9406136 -0.4158452 -0.419612 0.7815385 -0.2616694 0.8220934 -0.1532863 -0.6137869 0.463387 -0.527466
member -0.7800627 -0.7230143 -0.9468009 0.9383954 0.0057933 0.0725564 0.4105953 -0.2110357 0.3029451 -0.4759097 -0.250563 -0.5561592 0.3947851 -0.8563079 0.4803402 0.6894331 -0.4054458 0.1827359 -0.8867198 0.3282497
troops -0.5516729 -0.4488185 0.277371 0.2503172 -0.5051988 -0.5872497 0.7989567 -0.1562792 0.7999713 -0.4416948 0.501575 -0.1252499 -0.1132223 0.422703 -0.8289888 -0.7732651 0.5660696 -0.5703687 0.6117517 -0.0771492
street -0.7311986 -0.8517929 -0.4350961 0.3596959 0.1619923 -0.587457 -0.6576297 0.4920809 -0.3718552 -0.8708345 -0.7961353 0.0398043 0.9284755 0.7737308 -0.6503731 0.3456432 0.9330095 -0.8733611 -0.57143 0.3997634
though 0.8876038 -0.9893658 0.0896677 -0.4727685 -0.50162 -0.8042775 0.265713 0.3639337 0.0996012 -0.8120021 -0.7065894 0.2767037 0.873698 0.8758971 0.5721346 -0.7576252 0.7651229 0.9025299 -0.7817318 -0.3627078
